<?xml version="1.0"?>
<opencv_storage>
<my_svm type_id="opencv-ml-svm">
  <svm_type>C_SVC</svm_type>
  <kernel><type>RBF</type>
    <gamma>1.5000000000000001e-004</gamma></kernel>
  <C>3.1250000000000000e+002</C>
  <term_criteria><epsilon>2.2204460492503131e-016</epsilon>
    <iterations>4000</iterations></term_criteria>
  <var_all>4</var_all>
  <var_count>4</var_count>
  <class_count>2</class_count>
  <class_labels type_id="opencv-matrix">
    <rows>1</rows>
    <cols>2</cols>
    <dt>i</dt>
    <data>
      -1 1</data></class_labels>
  <sv_total>29</sv_total>
  <support_vectors>
    <_>
      1.14700699e+000 1.63127899e+000 -1.41207993e-001 -1.95237994e-001</_>
    <_>
      -7.72880971e-001 9.83856976e-001 -1.92760006e-002 -1.57280600e+000</_>
    <_>
      -6.43617988e-001 -7.66587973e-001 1.58171594e+000 1.20789802e+000</_>
    <_>
      8.99590030e-002 -3.58348995e-001 -8.19782019e-001 2.30026007e-001</_>
    <_>
      5.18494010e-001 -4.44368988e-001 5.72079003e-001 1.36096999e-001</_>
    <_>
      -2.96400003e-002 -8.19226027e-001 1.51586699e+000 4.85839009e-001</_>
    <_>
      1.11693799e+000 2.60105014e-001 -2.66548991e-001 -1.17237902e+000</_>
    <_>
      -8.47486019e-001 -4.56949994e-002 1.77557504e+000 -1.29774904e+000</_>
    <_>
      6.27659023e-001 -5.66609979e-001 -7.29494989e-001 1.11568105e+000</_>
    <_>
      3.16465592e+000 -6.45187974e-001 8.13200045e-003 -1.29470694e+000</_>
    <_>
      1.46576500e+000 2.12396097e+000 -3.89097989e-001 -2.54001999e+000</_>
    <_>
      1.61007002e-001 -2.91857988e-001 4.37227011e-001 -1.21518999e-001</_>
    <_>
      -2.59030998e-001 -4.34383988e-001 9.22493994e-001 1.14041996e+000</_>
    <_>
      7.46959969e-002 -1.09684996e-001 -5.75300992e-001 -9.60270017e-002</_>
    <_>
      1.47101998e-001 3.91259015e-001 6.90932989e-001 1.42180994e-001</_>
    <_>
      1.41992605e+000 -1.74810007e-001 -9.05589998e-001 6.23704016e-001</_>
    <_>
      -1.05795395e+000 -3.57099995e-002 1.69972003e-001 -6.77175999e-001</_>
    <_>
      -6.13462985e-001 1.52915999e-001 -4.94159997e-001 4.03035015e-001</_>
    <_>
      -1.01137996e+000 2.05008000e-001 -6.60302997e-001 -2.95074999e-001</_>
    <_>
      -9.46319997e-001 5.53945005e-001 1.52230000e+000 -1.77541494e+000</_>
    <_>
      -1.08661199e+000 -7.05079019e-001 -3.62199008e-001
      -7.90686011e-001</_>
    <_>
      7.10157990e-001 -1.04653203e+000 -7.67615974e-001 6.37057006e-001</_>
    <_>
      -2.28800997e-001 -3.38252991e-001 -9.41505015e-001 1.25613296e+000</_>
    <_>
      2.22573209e+000 -3.54396999e-001 7.39413977e-001 -9.78061020e-001</_>
    <_>
      5.91611028e-001 -6.75711989e-001 -3.10505986e-001 1.34458101e+000</_>
    <_>
      -3.95563006e-001 -2.14569997e-002 -9.07145977e-001
      -1.47549796e+000</_>
    <_>
      5.00299990e-001 -1.72371000e-001 -7.69149005e-001 9.95334029e-001</_>
    <_>
      -2.44054005e-001 -5.83006978e-001 -6.54201984e-001
      -6.33092999e-001</_>
    <_>
      7.03699980e-003 -5.33774018e-001 -9.31132972e-001 -1.17199996e-003</_></support_vectors>
  <decision_functions>
    <_>
      <sv_count>29</sv_count>
      <rho>-2.4764603821158993e-001</rho>
      <alpha>
        3.1250000000000000e+002 3.1250000000000000e+002
        3.1250000000000000e+002 3.1250000000000000e+002
        3.1250000000000000e+002 3.1250000000000000e+002
        3.1250000000000000e+002 7.5303567483359686e+001
        3.1250000000000000e+002 1.7493320319010675e+002
        1.8888002211390599e+002 3.1250000000000000e+002
        3.1250000000000000e+002 3.1250000000000000e+002
        3.1250000000000000e+002 -3.1250000000000000e+002
        -3.1250000000000000e+002 -3.1250000000000000e+002
        -3.1250000000000000e+002 -3.1250000000000000e+002
        -1.7085770891868322e+002 -3.1250000000000000e+002
        -2.6825908386868929e+002 -3.1250000000000000e+002
        -3.1250000000000000e+002 -3.1250000000000000e+002
        -3.1250000000000000e+002 -3.1250000000000000e+002
        -3.1250000000000000e+002</alpha>
      <index>
        0 1 2 3 4 5 6 7 8 9 10 11 12 13 14 15 16 17 18 19 20 21 22 23 24
        25 26 27 28</index></_></decision_functions></my_svm>
</opencv_storage>
